digraph Tree {
node [shape=box, style="filled, rounded", color="black", fontname="helvetica"] ;
edge [fontname="helvetica"] ;
0 [label="x[187] <= 0.05\ngini = 0.27\nsamples = 176\nvalue = [[234, 44]\n[239, 39]\n[245, 33]\n[256, 22]\n[138, 140]]", fillcolor="#fffdfc"] ;
1 [label="x[165] <= 0.08\ngini = 0.18\nsamples = 122\nvalue = [[170, 16]\n[178, 8]\n[182, 4]\n[164, 22]\n[50, 136]]", fillcolor="#f6d1b7"] ;
0 -> 1 [labeldistance=2.5, labelangle=45, headlabel="True"] ;
2 [label="gini = 0.0\nsamples = 13\nvalue = [[22, 0]\n[22, 0]\n[22, 0]\n[0, 22]\n[22, 0]]", fillcolor="#e58139"] ;
1 -> 2 ;
3 [label="x[927] <= 0.08\ngini = 0.12\nsamples = 109\nvalue = [[148, 16]\n[156, 8]\n[160, 4]\n[164, 0]\n[28, 136]]", fillcolor="#f0b88f"] ;
1 -> 3 ;
4 [label="x[937] <= 0.06\ngini = 0.03\nsamples = 78\nvalue = [[119, 1]\n[118, 2]\n[119, 1]\n[120, 0]\n[4, 116]]", fillcolor="#e78d4c"] ;
3 -> 4 ;
5 [label="x[862] <= 0.18\ngini = 0.01\nsamples = 75\nvalue = [[115, 1]\n[116, 0]\n[116, 0]\n[116, 0]\n[1, 115]]", fillcolor="#e6843e"] ;
4 -> 5 ;
6 [label="gini = 0.0\nsamples = 72\nvalue = [[113, 0]\n[113, 0]\n[113, 0]\n[113, 0]\n[0, 113]]", fillcolor="#e58139"] ;
5 -> 6 ;
7 [label="gini = 0.18\nsamples = 3\nvalue = [[2, 1]\n[3, 0]\n[3, 0]\n[3, 0]\n[1, 2]]", fillcolor="#f6d2b8"] ;
5 -> 7 ;
8 [label="gini = 0.25\nsamples = 3\nvalue = [[4, 0]\n[2, 2]\n[3, 1]\n[4, 0]\n[3, 1]]", fillcolor="#fcf3ec"] ;
4 -> 8 ;
9 [label="x[135] <= 0.15\ngini = 0.26\nsamples = 31\nvalue = [[29, 15]\n[38, 6]\n[41, 3]\n[44, 0]\n[24, 20]]", fillcolor="#fef8f4"] ;
3 -> 9 ;
10 [label="x[875] <= 0.19\ngini = 0.22\nsamples = 17\nvalue = [[9, 15]\n[19, 5]\n[21, 3]\n[24, 0]\n[23, 1]]", fillcolor="#fae5d6"] ;
9 -> 10 ;
11 [label="x[840] <= 0.12\ngini = 0.24\nsamples = 5\nvalue = [[6, 0]\n[4, 2]\n[3, 3]\n[6, 0]\n[5, 1]]", fillcolor="#fcf0e8"] ;
10 -> 11 ;
12 [label="gini = 0.18\nsamples = 3\nvalue = [[3, 0]\n[1, 2]\n[3, 0]\n[3, 0]\n[2, 1]]", fillcolor="#f6d2b8"] ;
11 -> 12 ;
13 [label="gini = 0.0\nsamples = 2\nvalue = [[3, 0]\n[3, 0]\n[0, 3]\n[3, 0]\n[3, 0]]", fillcolor="#e58139"] ;
11 -> 13 ;
14 [label="x[832] <= 0.09\ngini = 0.11\nsamples = 12\nvalue = [[3, 15]\n[15, 3]\n[18, 0]\n[18, 0]\n[18, 0]]", fillcolor="#efb488"] ;
10 -> 14 ;
15 [label="gini = 0.19\nsamples = 5\nvalue = [[3, 5]\n[5, 3]\n[8, 0]\n[8, 0]\n[8, 0]]", fillcolor="#f7d6bf"] ;
14 -> 15 ;
16 [label="gini = 0.0\nsamples = 7\nvalue = [[0, 10]\n[10, 0]\n[10, 0]\n[10, 0]\n[10, 0]]", fillcolor="#e58139"] ;
14 -> 16 ;
17 [label="x[314] <= 0.07\ngini = 0.04\nsamples = 14\nvalue = [[20, 0]\n[19, 1]\n[20, 0]\n[20, 0]\n[1, 19]]", fillcolor="#e99254"] ;
9 -> 17 ;
18 [label="gini = 0.0\nsamples = 12\nvalue = [[18, 0]\n[18, 0]\n[18, 0]\n[18, 0]\n[0, 18]]", fillcolor="#e58139"] ;
17 -> 18 ;
19 [label="gini = 0.2\nsamples = 2\nvalue = [[2, 0]\n[1, 1]\n[2, 0]\n[2, 0]\n[1, 1]]", fillcolor="#f8dcc8"] ;
17 -> 19 ;
20 [label="x[530] <= 0.27\ngini = 0.28\nsamples = 54\nvalue = [[64, 28]\n[61, 31]\n[63, 29]\n[92, 0]\n[88, 4]]", fillcolor="#ffffff"] ;
0 -> 20 [labeldistance=2.5, labelangle=-45, headlabel="False"] ;
21 [label="gini = 0.0\nsamples = 16\nvalue = [[30, 0]\n[0, 30]\n[30, 0]\n[30, 0]\n[30, 0]]", fillcolor="#e58139"] ;
20 -> 21 ;
22 [label="x[889] <= 0.19\ngini = 0.23\nsamples = 38\nvalue = [[34, 28]\n[61, 1]\n[33, 29]\n[62, 0]\n[58, 4]]", fillcolor="#fbe9dd"] ;
20 -> 22 ;
23 [label="x[673] <= 0.12\ngini = 0.11\nsamples = 10\nvalue = [[3, 16]\n[19, 0]\n[16, 3]\n[19, 0]\n[19, 0]]", fillcolor="#efb185"] ;
22 -> 23 ;
24 [label="gini = 0.0\nsamples = 7\nvalue = [[0, 16]\n[16, 0]\n[16, 0]\n[16, 0]\n[16, 0]]", fillcolor="#e58139"] ;
23 -> 24 ;
25 [label="gini = 0.0\nsamples = 3\nvalue = [[3, 0]\n[3, 0]\n[0, 3]\n[3, 0]\n[3, 0]]", fillcolor="#e58139"] ;
23 -> 25 ;
26 [label="x[310] <= 0.07\ngini = 0.22\nsamples = 28\nvalue = [[31, 12]\n[42, 1]\n[17, 26]\n[43, 0]\n[39, 4]]", fillcolor="#fae5d5"] ;
22 -> 26 ;
27 [label="x[612] <= 0.04\ngini = 0.26\nsamples = 13\nvalue = [[10, 9]\n[18, 1]\n[14, 5]\n[19, 0]\n[15, 4]]", fillcolor="#fef9f5"] ;
26 -> 27 ;
28 [label="x[997] <= 0.06\ngini = 0.2\nsamples = 6\nvalue = [[9, 0]\n[9, 0]\n[4, 5]\n[9, 0]\n[5, 4]]", fillcolor="#f8dbc6"] ;
27 -> 28 ;
29 [label="gini = 0.19\nsamples = 4\nvalue = [[5, 0]\n[5, 0]\n[3, 2]\n[5, 0]\n[2, 3]]", fillcolor="#f7d8c2"] ;
28 -> 29 ;
30 [label="gini = 0.15\nsamples = 2\nvalue = [[4, 0]\n[4, 0]\n[1, 3]\n[4, 0]\n[3, 1]]", fillcolor="#f3c5a4"] ;
28 -> 30 ;
31 [label="x[284] <= 0.04\ngini = 0.07\nsamples = 7\nvalue = [[1, 9]\n[9, 1]\n[10, 0]\n[10, 0]\n[10, 0]]", fillcolor="#eca26c"] ;
27 -> 31 ;
32 [label="gini = 0.18\nsamples = 2\nvalue = [[1, 2]\n[2, 1]\n[3, 0]\n[3, 0]\n[3, 0]]", fillcolor="#f6d2b8"] ;
31 -> 32 ;
33 [label="gini = 0.0\nsamples = 5\nvalue = [[0, 7]\n[7, 0]\n[7, 0]\n[7, 0]\n[7, 0]]", fillcolor="#e58139"] ;
31 -> 33 ;
34 [label="x[827] <= 0.15\ngini = 0.09\nsamples = 15\nvalue = [[21, 3]\n[24, 0]\n[3, 21]\n[24, 0]\n[24, 0]]", fillcolor="#eda978"] ;
26 -> 34 ;
35 [label="x[331] <= 0.23\ngini = 0.03\nsamples = 13\nvalue = [[21, 1]\n[22, 0]\n[1, 21]\n[22, 0]\n[22, 0]]", fillcolor="#e89152"] ;
34 -> 35 ;
36 [label="gini = 0.2\nsamples = 2\nvalue = [[1, 1]\n[2, 0]\n[1, 1]\n[2, 0]\n[2, 0]]", fillcolor="#f8dcc8"] ;
35 -> 36 ;
37 [label="gini = 0.0\nsamples = 11\nvalue = [[20, 0]\n[20, 0]\n[0, 20]\n[20, 0]\n[20, 0]]", fillcolor="#e58139"] ;
35 -> 37 ;
38 [label="gini = 0.0\nsamples = 2\nvalue = [[0, 2]\n[2, 0]\n[2, 0]\n[2, 0]\n[2, 0]]", fillcolor="#e58139"] ;
34 -> 38 ;
}